digraph Tree {
node [shape=box, style="filled", color="black", fontname="helvetica"] ;
edge [fontname="helvetica"] ;
0 [label="pixel1001 <= 254.5\ngini = 0.5\nsamples = 272\nvalue = [136, 136]\nclass = 0", fillcolor="#ffffff"] ;
1 [label="gini = 0.0\nsamples = 114\nvalue = [114, 0]\nclass = 0", fillcolor="#e58139"] ;
0 -> 1 [labeldistance=2.5, labelangle=45, headlabel="True"] ;
2 [label="pixel924 <= 254.5\ngini = 0.24\nsamples = 158\nvalue = [22, 136]\nclass = 1", fillcolor="#59ade9"] ;
0 -> 2 [labeldistance=2.5, labelangle=-45, headlabel="False"] ;
3 [label="gini = 0.0\nsamples = 16\nvalue = [16, 0]\nclass = 0", fillcolor="#e58139"] ;
2 -> 3 ;
4 [label="pixel3203 <= 252.5\ngini = 0.081\nsamples = 142\nvalue = [6, 136]\nclass = 1", fillcolor="#42a1e6"] ;
2 -> 4 ;
5 [label="gini = 0.0\nsamples = 4\nvalue = [4, 0]\nclass = 0", fillcolor="#e58139"] ;
4 -> 5 ;
6 [label="pixel920 <= 248.0\ngini = 0.029\nsamples = 138\nvalue = [2, 136]\nclass = 1", fillcolor="#3c9ee5"] ;
4 -> 6 ;
7 [label="gini = 0.0\nsamples = 2\nvalue = [2, 0]\nclass = 0", fillcolor="#e58139"] ;
6 -> 7 ;
8 [label="gini = 0.0\nsamples = 136\nvalue = [0, 136]\nclass = 1", fillcolor="#399de5"] ;
6 -> 8 ;
}